digraph Tree {
node [shape=box] ;
0 [label="AS <= 11.5\ngini = 0.659\nsamples = 268\nvalue = [87, 74, 107]"] ;
1 [label="AR <= 0.5\ngini = 0.6105\nsamples = 152\nvalue = [38, 34, 80]"] ;
0 -> 1 [labeldistance=2.5, labelangle=45, headlabel="True"] ;
3 [label="HC <= 4.5\ngini = 0.6344\nsamples = 134\nvalue = [38, 32, 64]"] ;
1 -> 3 ;
5 [label="gini = 0.519\nsamples = 51\nvalue = [9, 9, 33]"] ;
3 -> 5 ;
6 [label="HF <= 13.5\ngini = 0.6616\nsamples = 83\nvalue = [29, 23, 31]"] ;
3 -> 6 ;
7 [label="HF <= 6.5\ngini = 0.6439\nsamples = 71\nvalue = [29, 15, 27]"] ;
6 -> 7 ;
9 [label="gini = 0.6235\nsamples = 18\nvalue = [8, 7, 3]"] ;
7 -> 9 ;
10 [label="HY <= 0.5\ngini = 0.6152\nsamples = 53\nvalue = [21, 8, 24]"] ;
7 -> 10 ;
11 [label="gini = 0.2975\nsamples = 11\nvalue = [2, 0, 9]"] ;
10 -> 11 ;
12 [label="gini = 0.6315\nsamples = 42\nvalue = [19, 8, 15]"] ;
10 -> 12 ;
8 [label="gini = 0.4444\nsamples = 12\nvalue = [0, 8, 4]"] ;
6 -> 8 ;
4 [label="gini = 0.1975\nsamples = 18\nvalue = [0, 2, 16]"] ;
1 -> 4 ;
2 [label="gini = 0.6485\nsamples = 116\nvalue = [49, 40, 27]"] ;
0 -> 2 [labeldistance=2.5, labelangle=-45, headlabel="False"] ;
}